<?xml version="1.0"?>
<opencv_storage>
<stage10>
  <maxWeakCount>13</maxWeakCount>
  <stageThreshold>-1.4162398576736450e+00</stageThreshold>
  <weakClassifiers>
    <_>
      <internalNodes>
        0 -1 291470 -1.5362699050456285e-03</internalNodes>
      <leafValues>
        4.0300643444061279e-01 -4.8387095332145691e-01</leafValues></_>
    <_>
      <internalNodes>
        0 -1 247826 1.9184872508049011e-03</internalNodes>
      <leafValues>
        -2.9765227437019348e-01 5.7300394773483276e-01</leafValues></_>
    <_>
      <internalNodes>
        0 -1 293857 -4.4401516788639128e-04</internalNodes>
      <leafValues>
        -1.9773435592651367e-01 7.6777797937393188e-01</leafValues></_>
    <_>
      <internalNodes>
        0 -1 306682 9.9307280834182166e-06</internalNodes>
      <leafValues>
        -1.3152968883514404e-01 9.5431637763977051e-01</leafValues></_>
    <_>
      <internalNodes>
        0 -1 278094 9.6469197887927294e-04</internalNodes>
      <leafValues>
        -2.5088414549827576e-01 5.4752618074417114e-01</leafValues></_>
    <_>
      <internalNodes>
        0 -1 248650 -3.0764864757657051e-02</internalNodes>
      <leafValues>
        3.1614941358566284e-01 -4.6379876136779785e-01</leafValues></_>
    <_>
      <internalNodes>
        0 -1 275960 1.3307866174727678e-03</internalNodes>
      <leafValues>
        -1.8992924690246582e-01 6.4754003286361694e-01</leafValues></_>
    <_>
      <internalNodes>
        0 -1 275958 -2.5319927954114974e-04</internalNodes>
      <leafValues>
        -2.1153338253498077e-01 8.0669808387756348e-01</leafValues></_>
    <_>
      <internalNodes>
        0 -1 275553 1.2722234241664410e-02</internalNodes>
      <leafValues>
        -8.0615293979644775e-01 2.1766622364521027e-01</leafValues></_>
    <_>
      <internalNodes>
        0 -1 289276 1.0849256068468094e-03</internalNodes>
      <leafValues>
        -2.5377169251441956e-01 6.7397820949554443e-01</leafValues></_>
    <_>
      <internalNodes>
        0 -1 328428 -9.1059168335050344e-04</internalNodes>
      <leafValues>
        5.0759673118591309e-01 -2.3996685445308685e-01</leafValues></_>
    <_>
      <internalNodes>
        0 -1 261970 1.0819108865689486e-05</internalNodes>
      <leafValues>
        -6.7200475931167603e-01 1.9738785922527313e-01</leafValues></_>
    <_>
      <internalNodes>
        0 -1 229263 -2.4761186912655830e-02</internalNodes>
      <leafValues>
        -5.7813292741775513e-01 2.2790880501270294e-01</leafValues></_></weakClassifiers></stage10>
</opencv_storage>
