<?xml version="1.0"?>
<opencv_storage>
<stage12>
  <maxWeakCount>14</maxWeakCount>
  <stageThreshold>-1.2455294132232666e+00</stageThreshold>
  <weakClassifiers>
    <_>
      <internalNodes>
        0 -1 345791 -3.7834551185369492e-03</internalNodes>
      <leafValues>
        4.2131978273391724e-01 -4.0807175636291504e-01</leafValues></_>
    <_>
      <internalNodes>
        0 -1 217627 1.6366749769076705e-03</internalNodes>
      <leafValues>
        -4.9054095149040222e-01 3.2575222849845886e-01</leafValues></_>
    <_>
      <internalNodes>
        0 -1 196332 -1.4549409970641136e-02</internalNodes>
      <leafValues>
        1.9741928577423096e-01 -7.0753145217895508e-01</leafValues></_>
    <_>
      <internalNodes>
        0 -1 289276 -3.5924458643421531e-04</internalNodes>
      <leafValues>
        5.7851928472518921e-01 -2.1815931797027588e-01</leafValues></_>
    <_>
      <internalNodes>
        0 -1 289276 4.4749421067535877e-04</internalNodes>
      <leafValues>
        -3.2335147261619568e-01 5.3988301753997803e-01</leafValues></_>
    <_>
      <internalNodes>
        0 -1 304076 3.8845418021082878e-04</internalNodes>
      <leafValues>
        -5.2664214372634888e-01 2.7555644512176514e-01</leafValues></_>
    <_>
      <internalNodes>
        0 -1 33235 -2.2991368174552917e-01</internalNodes>
      <leafValues>
        -6.5359681844711304e-01 1.7296816408634186e-01</leafValues></_>
    <_>
      <internalNodes>
        0 -1 318647 1.3508193660527468e-05</internalNodes>
      <leafValues>
        -1.8976286053657532e-01 8.5264348983764648e-01</leafValues></_>
    <_>
      <internalNodes>
        0 -1 245723 1.9486539531499147e-04</internalNodes>
      <leafValues>
        -7.7147179841995239e-01 2.1249921619892120e-01</leafValues></_>
    <_>
      <internalNodes>
        0 -1 278090 -1.9751866348087788e-03</internalNodes>
      <leafValues>
        6.4503151178359985e-01 -2.3726569116115570e-01</leafValues></_>
    <_>
      <internalNodes>
        0 -1 262461 1.4514342183247209e-03</internalNodes>
      <leafValues>
        -2.3501329123973846e-01 5.4909551143646240e-01</leafValues></_>
    <_>
      <internalNodes>
        0 -1 14808 -3.2056272029876709e-02</internalNodes>
      <leafValues>
        2.2140488028526306e-01 -6.0177785158157349e-01</leafValues></_>
    <_>
      <internalNodes>
        0 -1 246050 -3.0853037605993450e-04</internalNodes>
      <leafValues>
        -2.2236926853656769e-01 7.2022479772567749e-01</leafValues></_>
    <_>
      <internalNodes>
        0 -1 327768 -5.5074347183108330e-03</internalNodes>
      <leafValues>
        1.9586238265037537e-01 -6.9639939069747925e-01</leafValues></_></weakClassifiers></stage12>
</opencv_storage>
