<?xml version="1.0"?>
<opencv_storage>
<stage7>
  <maxWeakCount>9</maxWeakCount>
  <stageThreshold>-1.2739520072937012e+00</stageThreshold>
  <weakClassifiers>
    <_>
      <internalNodes>
        0 -1 246693 -3.0988603830337524e-03</internalNodes>
      <leafValues>
        8.4636485576629639e-01 -3.8352590799331665e-01</leafValues></_>
    <_>
      <internalNodes>
        0 -1 304479 1.6437968006357551e-03</internalNodes>
      <leafValues>
        -3.1401756405830383e-01 8.2118177413940430e-01</leafValues></_>
    <_>
      <internalNodes>
        0 -1 16534 1.6689784824848175e-02</internalNodes>
      <leafValues>
        -7.5652992725372314e-01 3.0280783772468567e-01</leafValues></_>
    <_>
      <internalNodes>
        0 -1 328428 -1.8642218783497810e-03</internalNodes>
      <leafValues>
        7.6719671487808228e-01 -2.8719592094421387e-01</leafValues></_>
    <_>
      <internalNodes>
        0 -1 275958 -2.2022465418558568e-04</internalNodes>
      <leafValues>
        -1.6380091011524200e-01 9.1160732507705688e-01</leafValues></_>
    <_>
      <internalNodes>
        0 -1 275960 9.1735750902444124e-04</internalNodes>
      <leafValues>
        -2.5276222825050354e-01 7.3709756135940552e-01</leafValues></_>
    <_>
      <internalNodes>
        0 -1 261842 3.0140716262394562e-05</internalNodes>
      <leafValues>
        -1.6324067115783691e-01 9.4416910409927368e-01</leafValues></_>
    <_>
      <internalNodes>
        0 -1 260937 -2.1964646875858307e-02</internalNodes>
      <leafValues>
        3.0313786864280701e-01 -6.7226743698120117e-01</leafValues></_>
    <_>
      <internalNodes>
        0 -1 247820 7.2232651291415095e-06</internalNodes>
      <leafValues>
        -2.4587658047676086e-01 8.8730984926223755e-01</leafValues></_></weakClassifiers></stage7>
</opencv_storage>
