<?xml version="1.0"?>
<opencv_storage>
<stage4>
  <maxWeakCount>6</maxWeakCount>
  <stageThreshold>-1.0037678480148315e+00</stageThreshold>
  <weakClassifiers>
    <_>
      <internalNodes>
        0 -1 291470 -1.1301833437755704e-03</internalNodes>
      <leafValues>
        8.4668987989425659e-01 -6.1130744218826294e-01</leafValues></_>
    <_>
      <internalNodes>
        0 -1 291750 2.7847971767187119e-02</internalNodes>
      <leafValues>
        -7.0474463701248169e-01 5.6168109178543091e-01</leafValues></_>
    <_>
      <internalNodes>
        0 -1 328428 -5.5262923706322908e-04</internalNodes>
      <leafValues>
        7.8604894876480103e-01 -4.1665136814117432e-01</leafValues></_>
    <_>
      <internalNodes>
        0 -1 277601 -8.1763282651081681e-04</internalNodes>
      <leafValues>
        8.1932616233825684e-01 -3.8617238402366638e-01</leafValues></_>
    <_>
      <internalNodes>
        0 -1 245051 -2.3895764723420143e-02</internalNodes>
      <leafValues>
        -8.5227638483047485e-01 4.5158344507217407e-01</leafValues></_>
    <_>
      <internalNodes>
        0 -1 262461 4.8113625962287188e-04</internalNodes>
      <leafValues>
        -4.6350410580635071e-01 7.6468402147293091e-01</leafValues></_></weakClassifiers></stage4>
</opencv_storage>
