<?xml version="1.0"?>
<opencv_storage>
<cascade>
  <stageType>BOOST</stageType>
  <featureType>HAAR</featureType>
  <height>30</height>
  <width>30</width>
  <stageParams>
    <boostType>GAB</boostType>
    <minHitRate>9.9900001287460327e-01</minHitRate>
    <maxFalseAlarm>5.0000000000000000e-01</maxFalseAlarm>
    <weightTrimRate>9.4999999999999996e-01</weightTrimRate>
    <maxDepth>1</maxDepth>
    <maxWeakCount>100</maxWeakCount></stageParams>
  <featureParams>
    <maxCatCount>0</maxCatCount>
    <featSize>1</featSize>
    <mode>BASIC</mode></featureParams>
  <stageNum>10</stageNum>
  <stages>
    <!-- stage 0 -->
    <_>
      <maxWeakCount>2</maxWeakCount>
      <stageThreshold>-5.3524579852819443e-02</stageThreshold>
      <weakClassifiers>
        <_>
          <internalNodes>
            0 -1 24 -3.3002486452460289e-03</internalNodes>
          <leafValues>
            -9.9267399311065674e-01 9.8934042453765869e-01</leafValues></_>
        <_>
          <internalNodes>
            0 -1 27 -1.1884443461894989e-02</internalNodes>
          <leafValues>
            9.3914943933486938e-01 -9.8001259565353394e-01</leafValues></_></weakClassifiers></_>
    <!-- stage 1 -->
    <_>
      <maxWeakCount>3</maxWeakCount>
      <stageThreshold>-1.0040895938873291e+00</stageThreshold>
      <weakClassifiers>
        <_>
          <internalNodes>
            0 -1 24 7.0769968442618847e-04</internalNodes>
          <leafValues>
            -9.6980738639831543e-01 9.7317236661911011e-01</leafValues></_>
        <_>
          <internalNodes>
            0 -1 51 8.7987655206234194e-06</internalNodes>
          <leafValues>
            -8.1160563230514526e-01 9.9725788831710815e-01</leafValues></_>
        <_>
          <internalNodes>
            0 -1 14 -4.4703047722578049e-02</internalNodes>
          <leafValues>
            -9.9145931005477905e-01 7.7732342481613159e-01</leafValues></_></weakClassifiers></_>
    <!-- stage 2 -->
    <_>
      <maxWeakCount>4</maxWeakCount>
      <stageThreshold>-1.7177451848983765e+00</stageThreshold>
      <weakClassifiers>
        <_>
          <internalNodes>
            0 -1 43 -5.4657221771776676e-03</internalNodes>
          <leafValues>
            9.0605854988098145e-01 -8.9706641435623169e-01</leafValues></_>
        <_>
          <internalNodes>
            0 -1 24 3.1203445978462696e-03</internalNodes>
          <leafValues>
            -8.5985517501831055e-01 6.4121299982070923e-01</leafValues></_>
        <_>
          <internalNodes>
            0 -1 51 9.7227079095318913e-05</internalNodes>
          <leafValues>
            -5.6120139360427856e-01 8.5985273122787476e-01</leafValues></_>
        <_>
          <internalNodes>
            0 -1 1 -9.7849974408745766e-03</internalNodes>
          <leafValues>
            6.0037773847579956e-01 -7.5313323736190796e-01</leafValues></_></weakClassifiers></_>
    <!-- stage 3 -->
    <_>
      <maxWeakCount>6</maxWeakCount>
      <stageThreshold>-2.4581310749053955e+00</stageThreshold>
      <weakClassifiers>
        <_>
          <internalNodes>
            0 -1 38 5.8828498004004359e-04</internalNodes>
          <leafValues>
            -8.3762377500534058e-01 9.1954022645950317e-01</leafValues></_>
        <_>
          <internalNodes>
            0 -1 24 1.2736331671476364e-02</internalNodes>
          <leafValues>
            -5.8038300275802612e-01 8.0051881074905396e-01</leafValues></_>
        <_>
          <internalNodes>
            0 -1 50 7.0797109401610214e-06</internalNodes>
          <leafValues>
            -7.4784427881240845e-01 5.5084276199340820e-01</leafValues></_>
        <_>
          <internalNodes>
            0 -1 8 3.1976024620234966e-03</internalNodes>
          <leafValues>
            -3.8246709108352661e-01 8.2450193166732788e-01</leafValues></_>
        <_>
          <internalNodes>
            0 -1 21 4.4753206893801689e-03</internalNodes>
          <leafValues>
            -6.6967850923538208e-01 4.3053409457206726e-01</leafValues></_>
        <_>
          <internalNodes>
            0 -1 52 -3.4086334053426981e-03</internalNodes>
          <leafValues>
            6.5158361196517944e-01 -4.4710341095924377e-01</leafValues></_></weakClassifiers></_>
    <!-- stage 4 -->
    <_>
      <maxWeakCount>7</maxWeakCount>
      <stageThreshold>-2.1470305919647217e+00</stageThreshold>
      <weakClassifiers>
        <_>
          <internalNodes>
            0 -1 51 8.2346465205773711e-04</internalNodes>
          <leafValues>
            -8.1781780719757080e-01 8.6421501636505127e-01</leafValues></_>
        <_>
          <internalNodes>
            0 -1 23 6.5840678289532661e-03</internalNodes>
          <leafValues>
            -7.0079618692398071e-01 5.1567494869232178e-01</leafValues></_>
        <_>
          <internalNodes>
            0 -1 39 -3.9048059843480587e-03</internalNodes>
          <leafValues>
            7.7663242816925049e-01 -4.1437819600105286e-01</leafValues></_>
        <_>
          <internalNodes>
            0 -1 11 -1.2295968830585480e-02</internalNodes>
          <leafValues>
            3.2230737805366516e-01 -8.4921890497207642e-01</leafValues></_>
        <_>
          <internalNodes>
            0 -1 20 4.2139571160078049e-03</internalNodes>
          <leafValues>
            -5.8223986625671387e-01 4.4340515136718750e-01</leafValues></_>
        <_>
          <internalNodes>
            0 -1 45 -2.0708543888758868e-04</internalNodes>
          <leafValues>
            -3.3053371310234070e-01 9.0996080636978149e-01</leafValues></_>
        <_>
          <internalNodes>
            0 -1 2 4.9793552607297897e-03</internalNodes>
          <leafValues>
            -7.8001141548156738e-01 3.7642788887023926e-01</leafValues></_></weakClassifiers></_>
    <!-- stage 5 -->
    <_>
      <maxWeakCount>8</maxWeakCount>
      <stageThreshold>-2.3657510280609131e+00</stageThreshold>
      <weakClassifiers>
        <_>
          <internalNodes>
            0 -1 38 1.9271327182650566e-03</internalNodes>
          <leafValues>
            -7.8593271970748901e-01 7.7931034564971924e-01</leafValues></_>
        <_>
          <internalNodes>
            0 -1 48 -3.7632917519658804e-04</internalNodes>
          <leafValues>
            -3.8152402639389038e-01 7.7533727884292603e-01</leafValues></_>
        <_>
          <internalNodes>
            0 -1 18 2.3518763482570648e-02</internalNodes>
          <leafValues>
            -5.5337148904800415e-01 4.5669221878051758e-01</leafValues></_>
        <_>
          <internalNodes>
            0 -1 45 -1.8547323998063803e-04</internalNodes>
          <leafValues>
            -3.0569013953208923e-01 9.1239398717880249e-01</leafValues></_>
        <_>
          <internalNodes>
            0 -1 4 -2.1196650341153145e-03</internalNodes>
          <leafValues>
            3.8861560821533203e-01 -6.4800709486007690e-01</leafValues></_>
        <_>
          <internalNodes>
            0 -1 47 1.2608423130586743e-03</internalNodes>
          <leafValues>
            -3.1133502721786499e-01 6.9980388879776001e-01</leafValues></_>
        <_>
          <internalNodes>
            0 -1 12 2.7118700090795755e-03</internalNodes>
          <leafValues>
            -2.8048944473266602e-01 7.5175356864929199e-01</leafValues></_>
        <_>
          <internalNodes>
            0 -1 53 -2.5168916909024119e-04</internalNodes>
          <leafValues>
            -2.1510358154773712e-01 9.0059894323348999e-01</leafValues></_></weakClassifiers></_>
    <!-- stage 6 -->
    <_>
      <maxWeakCount>9</maxWeakCount>
      <stageThreshold>-1.7089055776596069e+00</stageThreshold>
      <weakClassifiers>
        <_>
          <internalNodes>
            0 -1 49 -1.9320324063301086e-03</internalNodes>
          <leafValues>
            8.0201339721679688e-01 -6.1621624231338501e-01</leafValues></_>
        <_>
          <internalNodes>
            0 -1 51 1.6558703500777483e-03</internalNodes>
          <leafValues>
            -4.4332656264305115e-01 6.4943450689315796e-01</leafValues></_>
        <_>
          <internalNodes>
            0 -1 16 -6.7517147399485111e-03</internalNodes>
          <leafValues>
            -6.2111431360244751e-01 4.2313501238822937e-01</leafValues></_>
        <_>
          <internalNodes>
            0 -1 10 -2.0269123837351799e-02</internalNodes>
          <leafValues>
            3.4107625484466553e-01 -7.4955886602401733e-01</leafValues></_>
        <_>
          <internalNodes>
            0 -1 29 -2.2719851403962821e-04</internalNodes>
          <leafValues>
            -2.4603712558746338e-01 8.8567227125167847e-01</leafValues></_>
        <_>
          <internalNodes>
            0 -1 44 7.5383216608315706e-04</internalNodes>
          <leafValues>
            -3.7192109227180481e-01 5.9125661849975586e-01</leafValues></_>
        <_>
          <internalNodes>
            0 -1 50 -4.7848774556769058e-05</internalNodes>
          <leafValues>
            -8.8517022132873535e-01 2.0958037674427032e-01</leafValues></_>
        <_>
          <internalNodes>
            0 -1 28 2.7315525803714991e-03</internalNodes>
          <leafValues>
            -6.5416723489761353e-01 2.9501935839653015e-01</leafValues></_>
        <_>
          <internalNodes>
            0 -1 56 4.2663263157010078e-03</internalNodes>
          <leafValues>
            -2.6995733380317688e-01 7.8495502471923828e-01</leafValues></_></weakClassifiers></_>
    <!-- stage 7 -->
    <_>
      <maxWeakCount>10</maxWeakCount>
      <stageThreshold>-1.9188059568405151e+00</stageThreshold>
      <weakClassifiers>
        <_>
          <internalNodes>
            0 -1 37 2.3587883333675563e-04</internalNodes>
          <leafValues>
            -7.6077169179916382e-01 4.1518577933311462e-01</leafValues></_>
        <_>
          <internalNodes>
            0 -1 23 1.1877620592713356e-02</internalNodes>
          <leafValues>
            -5.4746013879776001e-01 6.3141191005706787e-01</leafValues></_>
        <_>
          <internalNodes>
            0 -1 45 -6.1158767493907362e-05</internalNodes>
          <leafValues>
            -2.4688418209552765e-01 8.5453408956527710e-01</leafValues></_>
        <_>
          <internalNodes>
            0 -1 3 -1.8068216741085052e-03</internalNodes>
          <leafValues>
            3.9566126465797424e-01 -5.0445336103439331e-01</leafValues></_>
        <_>
          <internalNodes>
            0 -1 17 5.1853572949767113e-03</internalNodes>
          <leafValues>
            -3.0994743108749390e-01 6.2261337041854858e-01</leafValues></_>
        <_>
          <internalNodes>
            0 -1 42 -1.3642339035868645e-03</internalNodes>
          <leafValues>
            7.5186789035797119e-01 -2.6462158560752869e-01</leafValues></_>
        <_>
          <internalNodes>
            0 -1 9 -3.2400027848780155e-03</internalNodes>
          <leafValues>
            3.2876306772232056e-01 -6.5886473655700684e-01</leafValues></_>
        <_>
          <internalNodes>
            0 -1 53 -1.1677714064717293e-04</internalNodes>
          <leafValues>
            -2.7602484822273254e-01 7.8422194719314575e-01</leafValues></_>
        <_>
          <internalNodes>
            0 -1 31 -2.5231990730389953e-04</internalNodes>
          <leafValues>
            4.4238075613975525e-01 -4.7327423095703125e-01</leafValues></_>
        <_>
          <internalNodes>
            0 -1 40 -1.1408291757106781e-02</internalNodes>
          <leafValues>
            2.0330758392810822e-01 -8.5947412252426147e-01</leafValues></_></weakClassifiers></_>
    <!-- stage 8 -->
    <_>
      <maxWeakCount>10</maxWeakCount>
      <stageThreshold>-1.2705023288726807e+00</stageThreshold>
      <weakClassifiers>
        <_>
          <internalNodes>
            0 -1 36 1.6271597996819764e-04</internalNodes>
          <leafValues>
            -5.5208814144134521e-01 6.4152473211288452e-01</leafValues></_>
        <_>
          <internalNodes>
            0 -1 52 -6.1313491314649582e-03</internalNodes>
          <leafValues>
            8.0558246374130249e-01 -2.7418875694274902e-01</leafValues></_>
        <_>
          <internalNodes>
            0 -1 0 -8.7617393583059311e-03</internalNodes>
          <leafValues>
            3.6398476362228394e-01 -6.3162297010421753e-01</leafValues></_>
        <_>
          <internalNodes>
            0 -1 15 3.1155834440141916e-03</internalNodes>
          <leafValues>
            -9.1262143850326538e-01 1.5654048323631287e-01</leafValues></_>
        <_>
          <internalNodes>
            0 -1 54 -3.8608646718785167e-04</internalNodes>
          <leafValues>
            -3.1899505853652954e-01 6.5902233123779297e-01</leafValues></_>
        <_>
          <internalNodes>
            0 -1 41 -3.0925595201551914e-03</internalNodes>
          <leafValues>
            3.9580991864204407e-01 -4.3256521224975586e-01</leafValues></_>
        <_>
          <internalNodes>
            0 -1 7 -6.9339382462203503e-03</internalNodes>
          <leafValues>
            2.6285815238952637e-01 -6.7623150348663330e-01</leafValues></_>
        <_>
          <internalNodes>
            0 -1 25 -3.5917945206165314e-04</internalNodes>
          <leafValues>
            -3.3770260214805603e-01 7.8387397527694702e-01</leafValues></_>
        <_>
          <internalNodes>
            0 -1 55 -5.7267084717750549e-02</internalNodes>
          <leafValues>
            3.0484506487846375e-01 -7.3844420909881592e-01</leafValues></_>
        <_>
          <internalNodes>
            0 -1 6 -1.9553550519049168e-03</internalNodes>
          <leafValues>
            7.7756816148757935e-01 -2.7595856785774231e-01</leafValues></_></weakClassifiers></_>
    <!-- stage 9 -->
    <_>
      <maxWeakCount>14</maxWeakCount>
      <stageThreshold>-1.8521648645401001e+00</stageThreshold>
      <weakClassifiers>
        <_>
          <internalNodes>
            0 -1 36 6.1779154930263758e-04</internalNodes>
          <leafValues>
            -5.1841866970062256e-01 6.2563240528106689e-01</leafValues></_>
        <_>
          <internalNodes>
            0 -1 52 -3.4391880035400391e-03</internalNodes>
          <leafValues>
            3.3811649680137634e-01 -4.9599838256835938e-01</leafValues></_>
        <_>
          <internalNodes>
            0 -1 46 -1.4284868957474828e-03</internalNodes>
          <leafValues>
            -3.2489463686943054e-01 6.2943875789642334e-01</leafValues></_>
        <_>
          <internalNodes>
            0 -1 25 3.5940749512519687e-05</internalNodes>
          <leafValues>
            -2.3720546066761017e-01 9.4215214252471924e-01</leafValues></_>
        <_>
          <internalNodes>
            0 -1 35 1.4409027062356472e-03</internalNodes>
          <leafValues>
            -2.1126361191272736e-01 6.9796311855316162e-01</leafValues></_>
        <_>
          <internalNodes>
            0 -1 34 -5.1164615433663130e-04</internalNodes>
          <leafValues>
            6.9374448060989380e-01 -2.0376418530941010e-01</leafValues></_>
        <_>
          <internalNodes>
            0 -1 22 -1.7383166123181581e-03</internalNodes>
          <leafValues>
            -6.6702914237976074e-01 2.7908584475517273e-01</leafValues></_>
        <_>
          <internalNodes>
            0 -1 33 -4.1764613706618547e-04</internalNodes>
          <leafValues>
            7.2213888168334961e-01 -2.8913670778274536e-01</leafValues></_>
        <_>
          <internalNodes>
            0 -1 32 1.4123003929853439e-03</internalNodes>
          <leafValues>
            -1.5759268403053284e-01 7.5144308805465698e-01</leafValues></_>
        <_>
          <internalNodes>
            0 -1 30 -9.6886527899187058e-05</internalNodes>
          <leafValues>
            4.1338312625885010e-01 -3.2660180330276489e-01</leafValues></_>
        <_>
          <internalNodes>
            0 -1 26 4.3547648238018155e-04</internalNodes>
          <leafValues>
            2.1202933788299561e-01 -8.4397959709167480e-01</leafValues></_>
        <_>
          <internalNodes>
            0 -1 13 8.8351480662822723e-02</internalNodes>
          <leafValues>
            -3.1824618577957153e-01 5.1092183589935303e-01</leafValues></_>
        <_>
          <internalNodes>
            0 -1 19 1.1981058923993260e-04</internalNodes>
          <leafValues>
            -2.0258100330829620e-01 7.0236361026763916e-01</leafValues></_>
        <_>
          <internalNodes>
            0 -1 5 -3.1089074909687042e-02</internalNodes>
          <leafValues>
            2.2525545954704285e-01 -8.3834075927734375e-01</leafValues></_></weakClassifiers></_></stages>
  <features>
    <_>
      <rects>
        <_>
          2 18 16 10 -1.</_>
        <_>
          10 18 8 10 2.</_></rects>
      <tilted>0</tilted></_>
    <_>
      <rects>
        <_>
          3 17 14 7 -1.</_>
        <_>
          10 17 7 7 2.</_></rects>
      <tilted>0</tilted></_>
    <_>
      <rects>
        <_>
          4 12 14 4 -1.</_>
        <_>
          4 12 7 2 2.</_>
        <_>
          11 14 7 2 2.</_></rects>
      <tilted>0</tilted></_>
    <_>
      <rects>
        <_>
          6 17 8 2 -1.</_>
        <_>
          10 17 4 2 2.</_></rects>
      <tilted>0</tilted></_>
    <_>
      <rects>
        <_>
          6 18 10 7 -1.</_>
        <_>
          11 18 5 7 2.</_></rects>
      <tilted>0</tilted></_>
    <_>
      <rects>
        <_>
          7 13 16 6 -1.</_>
        <_>
          7 16 16 3 2.</_></rects>
      <tilted>0</tilted></_>
    <_>
      <rects>
        <_>
          10 12 2 2 -1.</_>
        <_>
          11 12 1 2 2.</_></rects>
      <tilted>0</tilted></_>
    <_>
      <rects>
        <_>
          10 12 9 6 -1.</_>
        <_>
          10 15 9 3 2.</_></rects>
      <tilted>0</tilted></_>
    <_>
      <rects>
        <_>
          10 13 4 2 -1.</_>
        <_>
          10 13 2 1 2.</_>
        <_>
          12 14 2 1 2.</_></rects>
      <tilted>0</tilted></_>
    <_>
      <rects>
        <_>
          10 13 11 4 -1.</_>
        <_>
          10 15 11 2 2.</_></rects>
      <tilted>0</tilted></_>
    <_>
      <rects>
        <_>
          11 8 8 14 -1.</_>
        <_>
          11 15 8 7 2.</_></rects>
      <tilted>0</tilted></_>
    <_>
      <rects>
        <_>
          11 9 8 12 -1.</_>
        <_>
          11 15 8 6 2.</_></rects>
      <tilted>0</tilted></_>
    <_>
      <rects>
        <_>
          11 11 2 4 -1.</_>
        <_>
          11 11 1 2 2.</_>
        <_>
          12 13 1 2 2.</_></rects>
      <tilted>0</tilted></_>
    <_>
      <rects>
        <_>
          11 16 18 10 -1.</_>
        <_>
          20 16 9 10 2.</_></rects>
      <tilted>0</tilted></_>
    <_>
      <rects>
        <_>
          12 10 5 12 -1.</_>
        <_>
          12 14 5 4 2.</_></rects>
      <tilted>0</tilted></_>
    <_>
      <rects>
        <_>
          12 11 6 6 -1.</_>
        <_>
          12 14 6 3 2.</_></rects>
      <tilted>0</tilted></_>
    <_>
      <rects>
        <_>
          12 11 6 9 -1.</_>
        <_>
          12 14 6 3 2.</_></rects>
      <tilted>0</tilted></_>
    <_>
      <rects>
        <_>
          12 14 4 2 -1.</_>
        <_>
          12 14 2 1 2.</_>
        <_>
          14 15 2 1 2.</_></rects>
      <tilted>0</tilted></_>
    <_>
      <rects>
        <_>
          12 14 14 4 -1.</_>
        <_>
          12 14 7 2 2.</_>
        <_>
          19 16 7 2 2.</_></rects>
      <tilted>0</tilted></_>
    <_>
      <rects>
        <_>
          12 15 2 2 -1.</_>
        <_>
          12 16 2 1 2.</_></rects>
      <tilted>0</tilted></_>
    <_>
      <rects>
        <_>
          12 18 10 5 -1.</_>
        <_>
          17 18 5 5 2.</_></rects>
      <tilted>0</tilted></_>
    <_>
      <rects>
        <_>
          12 18 14 6 -1.</_>
        <_>
          19 18 7 6 2.</_></rects>
      <tilted>0</tilted></_>
    <_>
      <rects>
        <_>
          13 9 5 12 -1.</_>
        <_>
          13 13 5 4 2.</_></rects>
      <tilted>0</tilted></_>
    <_>
      <rects>
        <_>
          13 10 3 9 -1.</_>
        <_>
          13 13 3 3 2.</_></rects>
      <tilted>0</tilted></_>
    <_>
      <rects>
        <_>
          13 10 4 9 -1.</_>
        <_>
          13 13 4 3 2.</_></rects>
      <tilted>0</tilted></_>
    <_>
      <rects>
        <_>
          13 12 3 1 -1.</_>
        <_>
          14 12 1 1 2.</_></rects>
      <tilted>0</tilted></_>
    <_>
      <rects>
        <_>
          13 14 2 1 -1.</_>
        <_>
          14 14 1 1 2.</_></rects>
      <tilted>0</tilted></_>
    <_>
      <rects>
        <_>
          13 14 4 4 -1.</_>
        <_>
          13 16 4 2 2.</_></rects>
      <tilted>0</tilted></_>
    <_>
      <rects>
        <_>
          13 14 8 8 -1.</_>
        <_>
          13 14 4 4 2.</_>
        <_>
          17 18 4 4 2.</_></rects>
      <tilted>0</tilted></_>
    <_>
      <rects>
        <_>
          13 16 3 1 -1.</_>
        <_>
          14 16 1 1 2.</_></rects>
      <tilted>0</tilted></_>
    <_>
      <rects>
        <_>
          13 17 2 4 -1.</_>
        <_>
          13 17 1 2 2.</_>
        <_>
          14 19 1 2 2.</_></rects>
      <tilted>0</tilted></_>
    <_>
      <rects>
        <_>
          13 17 3 4 -1.</_>
        <_>
          13 19 3 2 2.</_></rects>
      <tilted>0</tilted></_>
    <_>
      <rects>
        <_>
          14 8 2 4 -1.</_>
        <_>
          14 8 1 2 2.</_>
        <_>
          15 10 1 2 2.</_></rects>
      <tilted>0</tilted></_>
    <_>
      <rects>
        <_>
          14 9 2 2 -1.</_>
        <_>
          14 9 1 1 2.</_>
        <_>
          15 10 1 1 2.</_></rects>
      <tilted>0</tilted></_>
    <_>
      <rects>
        <_>
          14 10 2 2 -1.</_>
        <_>
          14 10 1 1 2.</_>
        <_>
          15 11 1 1 2.</_></rects>
      <tilted>0</tilted></_>
    <_>
      <rects>
        <_>
          14 11 2 3 -1.</_>
        <_>
          15 11 1 3 2.</_></rects>
      <tilted>0</tilted></_>
    <_>
      <rects>
        <_>
          14 12 1 3 -1.</_>
        <_>
          14 13 1 1 2.</_></rects>
      <tilted>0</tilted></_>
    <_>
      <rects>
        <_>
          14 14 1 3 -1.</_>
        <_>
          14 15 1 1 2.</_></rects>
      <tilted>0</tilted></_>
    <_>
      <rects>
        <_>
          14 14 2 3 -1.</_>
        <_>
          14 15 2 1 2.</_></rects>
      <tilted>0</tilted></_>
    <_>
      <rects>
        <_>
          14 14 4 2 -1.</_>
        <_>
          14 14 2 1 2.</_>
        <_>
          16 15 2 1 2.</_></rects>
      <tilted>0</tilted></_>
    <_>
      <rects>
        <_>
          14 14 15 4 -1.</_>
        <_>
          14 16 15 2 2.</_></rects>
      <tilted>0</tilted></_>
    <_>
      <rects>
        <_>
          14 15 1 2 -1.</_>
        <_>
          14 16 1 1 2.</_></rects>
      <tilted>0</tilted></_>
    <_>
      <rects>
        <_>
          14 15 2 5 -1.</_>
        <_>
          15 15 1 5 2.</_></rects>
      <tilted>0</tilted></_>
    <_>
      <rects>
        <_>
          14 15 2 2 -1.</_>
        <_>
          14 16 2 1 2.</_></rects>
      <tilted>0</tilted></_>
    <_>
      <rects>
        <_>
          14 16 2 4 -1.</_>
        <_>
          15 16 1 4 2.</_></rects>
      <tilted>0</tilted></_>
    <_>
      <rects>
        <_>
          14 17 3 1 -1.</_>
        <_>
          15 17 1 1 2.</_></rects>
      <tilted>0</tilted></_>
    <_>
      <rects>
        <_>
          14 17 3 3 -1.</_>
        <_>
          15 17 1 3 2.</_></rects>
      <tilted>0</tilted></_>
    <_>
      <rects>
        <_>
          15 11 2 4 -1.</_>
        <_>
          15 11 1 2 2.</_>
        <_>
          16 13 1 2 2.</_></rects>
      <tilted>0</tilted></_>
    <_>
      <rects>
        <_>
          15 12 1 3 -1.</_>
        <_>
          15 13 1 1 2.</_></rects>
      <tilted>0</tilted></_>
    <_>
      <rects>
        <_>
          15 13 1 2 -1.</_>
        <_>
          15 14 1 1 2.</_></rects>
      <tilted>0</tilted></_>
    <_>
      <rects>
        <_>
          15 14 2 1 -1.</_>
        <_>
          16 14 1 1 2.</_></rects>
      <tilted>0</tilted></_>
    <_>
      <rects>
        <_>
          15 14 1 3 -1.</_>
        <_>
          15 15 1 1 2.</_></rects>
      <tilted>0</tilted></_>
    <_>
      <rects>
        <_>
          15 15 1 2 -1.</_>
        <_>
          15 16 1 1 2.</_></rects>
      <tilted>0</tilted></_>
    <_>
      <rects>
        <_>
          15 16 3 1 -1.</_>
        <_>
          16 16 1 1 2.</_></rects>
      <tilted>0</tilted></_>
    <_>
      <rects>
        <_>
          15 16 1 3 -1.</_>
        <_>
          15 17 1 1 2.</_></rects>
      <tilted>0</tilted></_>
    <_>
      <rects>
        <_>
          19 7 11 15 -1.</_>
        <_>
          19 12 11 5 2.</_></rects>
      <tilted>0</tilted></_>
    <_>
      <rects>
        <_>
          19 13 2 6 -1.</_>
        <_>
          19 13 1 3 2.</_>
        <_>
          20 16 1 3 2.</_></rects>
      <tilted>0</tilted></_></features></cascade>
</opencv_storage>
