<?xml version="1.0"?>
<opencv_storage>
<stage5>
  <maxWeakCount>8</maxWeakCount>
  <stageThreshold>-2.3657510280609131e+00</stageThreshold>
  <weakClassifiers>
    <_>
      <internalNodes>
        0 -1 291522 1.9271327182650566e-03</internalNodes>
      <leafValues>
        -7.8593271970748901e-01 7.7931034564971924e-01</leafValues></_>
    <_>
      <internalNodes>
        0 -1 303519 -3.7632917519658804e-04</internalNodes>
      <leafValues>
        -3.8152402639389038e-01 7.7533727884292603e-01</leafValues></_>
    <_>
      <internalNodes>
        0 -1 263347 2.3518763482570648e-02</internalNodes>
      <leafValues>
        -5.5337148904800415e-01 4.5669221878051758e-01</leafValues></_>
    <_>
      <internalNodes>
        0 -1 292805 -1.8547323998063803e-04</internalNodes>
      <leafValues>
        -3.0569013953208923e-01 9.1239398717880249e-01</leafValues></_>
    <_>
      <internalNodes>
        0 -1 159269 -2.1196650341153145e-03</internalNodes>
      <leafValues>
        3.8861560821533203e-01 -6.4800709486007690e-01</leafValues></_>
    <_>
      <internalNodes>
        0 -1 303009 1.2608423130586743e-03</internalNodes>
      <leafValues>
        -3.1133502721786499e-01 6.9980388879776001e-01</leafValues></_>
    <_>
      <internalNodes>
        0 -1 245406 2.7118700090795755e-03</internalNodes>
      <leafValues>
        -2.8048944473266602e-01 7.5175356864929199e-01</leafValues></_>
    <_>
      <internalNodes>
        0 -1 305329 -2.5168916909024119e-04</internalNodes>
      <leafValues>
        -2.1510358154773712e-01 9.0059894323348999e-01</leafValues></_></weakClassifiers></stage5>
</opencv_storage>
