<?xml version="1.0"?>
<opencv_storage>
<stage7>
  <maxWeakCount>10</maxWeakCount>
  <stageThreshold>-1.9188059568405151e+00</stageThreshold>
  <weakClassifiers>
    <_>
      <internalNodes>
        0 -1 291469 2.3587883333675563e-04</internalNodes>
      <leafValues>
        -7.6077169179916382e-01 4.1518577933311462e-01</leafValues></_>
    <_>
      <internalNodes>
        0 -1 275489 1.1877620592713356e-02</internalNodes>
      <leafValues>
        -5.4746013879776001e-01 6.3141191005706787e-01</leafValues></_>
    <_>
      <internalNodes>
        0 -1 292805 -6.1158767493907362e-05</internalNodes>
      <leafValues>
        -2.4688418209552765e-01 8.5453408956527710e-01</leafValues></_>
    <_>
      <internalNodes>
        0 -1 158640 -1.8068216741085052e-03</internalNodes>
      <leafValues>
        3.9566126465797424e-01 -5.0445336103439331e-01</leafValues></_>
    <_>
      <internalNodes>
        0 -1 263079 5.1853572949767113e-03</internalNodes>
      <leafValues>
        -3.0994743108749390e-01 6.2261337041854858e-01</leafValues></_>
    <_>
      <internalNodes>
        0 -1 291966 -1.3642339035868645e-03</internalNodes>
      <leafValues>
        7.5186789035797119e-01 -2.6462158560752869e-01</leafValues></_>
    <_>
      <internalNodes>
        0 -1 230796 -3.2400027848780155e-03</internalNodes>
      <leafValues>
        3.2876306772232056e-01 -6.5886473655700684e-01</leafValues></_>
    <_>
      <internalNodes>
        0 -1 305329 -1.1677714064717293e-04</internalNodes>
      <leafValues>
        -2.7602484822273254e-01 7.8422194719314575e-01</leafValues></_>
    <_>
      <internalNodes>
        0 -1 279060 -2.5231990730389953e-04</internalNodes>
      <leafValues>
        4.4238075613975525e-01 -4.7327423095703125e-01</leafValues></_>
    <_>
      <internalNodes>
        0 -1 291922 -1.1408291757106781e-02</internalNodes>
      <leafValues>
        2.0330758392810822e-01 -8.5947412252426147e-01</leafValues></_></weakClassifiers></stage7>
</opencv_storage>
