<?xml version="1.0"?>
<opencv_storage>
<stage6>
  <maxWeakCount>9</maxWeakCount>
  <stageThreshold>-1.3926542997360229e+00</stageThreshold>
  <weakClassifiers>
    <_>
      <internalNodes>
        0 -1 304478 1.1167852208018303e-03</internalNodes>
      <leafValues>
        -5.3427064418792725e-01 8.4672695398330688e-01</leafValues></_>
    <_>
      <internalNodes>
        0 -1 174286 1.3384046033024788e-02</internalNodes>
      <leafValues>
        -5.6513851881027222e-01 6.1825263500213623e-01</leafValues></_>
    <_>
      <internalNodes>
        0 -1 292810 -7.3365133721381426e-04</internalNodes>
      <leafValues>
        -2.8343772888183594e-01 8.7492257356643677e-01</leafValues></_>
    <_>
      <internalNodes>
        0 -1 291523 -4.6391254290938377e-03</internalNodes>
      <leafValues>
        7.2902381420135498e-01 -3.0074620246887207e-01</leafValues></_>
    <_>
      <internalNodes>
        0 -1 305329 -2.7309614233672619e-04</internalNodes>
      <leafValues>
        -2.9573717713356018e-01 9.3254262208938599e-01</leafValues></_>
    <_>
      <internalNodes>
        0 -1 277606 1.3673495268449187e-03</internalNodes>
      <leafValues>
        -2.1119074523448944e-01 8.3575582504272461e-01</leafValues></_>
    <_>
      <internalNodes>
        0 -1 293676 3.6858818493783474e-03</internalNodes>
      <leafValues>
        -4.4785046577453613e-01 4.4887763261795044e-01</leafValues></_>
    <_>
      <internalNodes>
        0 -1 263618 3.6750154686160386e-04</internalNodes>
      <leafValues>
        -2.5140613317489624e-01 8.3632731437683105e-01</leafValues></_>
    <_>
      <internalNodes>
        0 -1 263479 -2.7851829305291176e-02</internalNodes>
      <leafValues>
        4.0040624141693115e-01 -7.1603780984878540e-01</leafValues></_></weakClassifiers></stage6>
</opencv_storage>
