<?xml version="1.0"?>
<opencv_storage>
<stage8>
  <maxWeakCount>11</maxWeakCount>
  <stageThreshold>-1.3692125082015991e+00</stageThreshold>
  <weakClassifiers>
    <_>
      <internalNodes>
        0 -1 304478 1.5124162891879678e-03</internalNodes>
      <leafValues>
        -3.8709676265716553e-01 7.0860928297042847e-01</leafValues></_>
    <_>
      <internalNodes>
        0 -1 245162 -1.3548674061894417e-02</internalNodes>
      <leafValues>
        4.5917549729347229e-01 -7.9890578985214233e-01</leafValues></_>
    <_>
      <internalNodes>
        0 -1 292805 -2.4013241636566818e-04</internalNodes>
      <leafValues>
        -2.6933312416076660e-01 8.9531612396240234e-01</leafValues></_>
    <_>
      <internalNodes>
        0 -1 290974 -1.9747267942875624e-03</internalNodes>
      <leafValues>
        6.5569061040878296e-01 -3.2284945249557495e-01</leafValues></_>
    <_>
      <internalNodes>
        0 -1 20791 -8.2356527447700500e-02</internalNodes>
      <leafValues>
        7.2916525602340698e-01 -3.3168745040893555e-01</leafValues></_>
    <_>
      <internalNodes>
        0 -1 248866 -1.8553176778368652e-04</internalNodes>
      <leafValues>
        4.2898625135421753e-01 -5.0129079818725586e-01</leafValues></_>
    <_>
      <internalNodes>
        0 -1 291947 -4.9044215120375156e-03</internalNodes>
      <leafValues>
        6.3191205263137817e-01 -3.5455733537673950e-01</leafValues></_>
    <_>
      <internalNodes>
        0 -1 230312 -9.7341218497604132e-04</internalNodes>
      <leafValues>
        7.9838848114013672e-01 -2.6908603310585022e-01</leafValues></_>
    <_>
      <internalNodes>
        0 -1 274996 -4.4870376586914062e-03</internalNodes>
      <leafValues>
        -7.7378630638122559e-01 3.6733010411262512e-01</leafValues></_>
    <_>
      <internalNodes>
        0 -1 276532 -1.7267807561438531e-04</internalNodes>
      <leafValues>
        -2.6558408141136169e-01 8.6336201429367065e-01</leafValues></_>
    <_>
      <internalNodes>
        0 -1 263618 7.5553667556960136e-05</internalNodes>
      <leafValues>
        -2.6213485002517700e-01 7.2884279489517212e-01</leafValues></_></weakClassifiers></stage8>
</opencv_storage>
