<?xml version="1.0"?>
<opencv_storage>
<stage4>
  <maxWeakCount>7</maxWeakCount>
  <stageThreshold>-2.1470305919647217e+00</stageThreshold>
  <weakClassifiers>
    <_>
      <internalNodes>
        0 -1 304478 8.2346465205773711e-04</internalNodes>
      <leafValues>
        -8.1781780719757080e-01 8.6421501636505127e-01</leafValues></_>
    <_>
      <internalNodes>
        0 -1 275489 6.5840678289532661e-03</internalNodes>
      <leafValues>
        -7.0079618692398071e-01 5.1567494869232178e-01</leafValues></_>
    <_>
      <internalNodes>
        0 -1 291523 -3.9048059843480587e-03</internalNodes>
      <leafValues>
        7.7663242816925049e-01 -4.1437819600105286e-01</leafValues></_>
    <_>
      <internalNodes>
        0 -1 244458 -1.2295968830585480e-02</internalNodes>
      <leafValues>
        3.2230737805366516e-01 -8.4921890497207642e-01</leafValues></_>
    <_>
      <internalNodes>
        0 -1 265152 4.2139571160078049e-03</internalNodes>
      <leafValues>
        -5.8223986625671387e-01 4.4340515136718750e-01</leafValues></_>
    <_>
      <internalNodes>
        0 -1 292805 -2.0708543888758868e-04</internalNodes>
      <leafValues>
        -3.3053371310234070e-01 9.0996080636978149e-01</leafValues></_>
    <_>
      <internalNodes>
        0 -1 112628 4.9793552607297897e-03</internalNodes>
      <leafValues>
        -7.8001141548156738e-01 3.7642788887023926e-01</leafValues></_></weakClassifiers></stage4>
</opencv_storage>
