<?xml version="1.0"?>
<opencv_storage>
<stage5>
  <maxWeakCount>8</maxWeakCount>
  <stageThreshold>-1.4468486309051514e+00</stageThreshold>
  <weakClassifiers>
    <_>
      <internalNodes>
        0 -1 291522 1.8414922524243593e-03</internalNodes>
      <leafValues>
        -5.5944055318832397e-01 8.6652427911758423e-01</leafValues></_>
    <_>
      <internalNodes>
        0 -1 244458 -1.8271485343575478e-02</internalNodes>
      <leafValues>
        5.3765767812728882e-01 -7.3899447917938232e-01</leafValues></_>
    <_>
      <internalNodes>
        0 -1 275489 9.7809378057718277e-03</internalNodes>
      <leafValues>
        -5.2817171812057495e-01 5.9850382804870605e-01</leafValues></_>
    <_>
      <internalNodes>
        0 -1 292805 -2.8873857809230685e-04</internalNodes>
      <leafValues>
        -2.9206621646881104e-01 9.2044723033905029e-01</leafValues></_>
    <_>
      <internalNodes>
        0 -1 304919 -4.2750998400151730e-03</internalNodes>
      <leafValues>
        6.8120622634887695e-01 -3.6817967891693115e-01</leafValues></_>
    <_>
      <internalNodes>
        0 -1 159251 -5.7716309092938900e-03</internalNodes>
      <leafValues>
        4.9038955569267273e-01 -5.4137969017028809e-01</leafValues></_>
    <_>
      <internalNodes>
        0 -1 303009 1.5652274014428258e-03</internalNodes>
      <leafValues>
        -3.4950989484786987e-01 7.7263927459716797e-01</leafValues></_>
    <_>
      <internalNodes>
        0 -1 276532 -4.4020731002092361e-04</internalNodes>
      <leafValues>
        -2.2755125164985657e-01 9.3306422233581543e-01</leafValues></_></weakClassifiers></stage5>
</opencv_storage>
