<?xml version="1.0"?>
<opencv_storage>
<stage3>
  <maxWeakCount>5</maxWeakCount>
  <stageThreshold>-9.2622131109237671e-01</stageThreshold>
  <weakClassifiers>
    <_>
      <internalNodes>
        0 -1 304478 4.0520846960134804e-04</internalNodes>
      <leafValues>
        -6.4550697803497314e-01 9.7893571853637695e-01</leafValues></_>
    <_>
      <internalNodes>
        0 -1 275555 1.2546805664896965e-03</internalNodes>
      <leafValues>
        -8.1248778104782104e-01 7.3483484983444214e-01</leafValues></_>
    <_>
      <internalNodes>
        0 -1 291947 -3.4851594828069210e-03</internalNodes>
      <leafValues>
        7.8409475088119507e-01 -4.9052798748016357e-01</leafValues></_>
    <_>
      <internalNodes>
        0 -1 279257 2.3997668176889420e-02</internalNodes>
      <leafValues>
        -6.8549114465713501e-01 6.1318498849868774e-01</leafValues></_>
    <_>
      <internalNodes>
        0 -1 263296 1.5615529380738735e-02</internalNodes>
      <leafValues>
        -7.5110131502151489e-01 4.0911644697189331e-01</leafValues></_></weakClassifiers></stage3>
</opencv_storage>
